%YAML:1.0
---
opencv_ml_rtrees:
   format: 3
   is_classifier: 1
   var_all: 23
   var_count: 22
   ord_var_count: 22
   cat_var_count: 1
   training_params:
      use_surrogates: 0
      max_categories: 10
      regression_accuracy: 0.
      max_depth: 5
      min_sample_count: 10
      cross_validation_folds: 0
      nactive_vars: 0
   global_var_idx: 1
   var_idx: [ 0, 1, 2, 3, 4, 5, 6, 7, 8, 9, 10, 11, 12, 13, 14, 15, 16,
       17, 18, 19, 20, 21 ]
   var_type: [ 0, 0, 0, 0, 0, 0, 0, 0, 0, 0, 0, 0, 0, 0, 0, 0, 0, 0, 0,
       0, 0, 0, 1 ]
   cat_ofs: [ 0, 0, 0, 0, 0, 0, 0, 0, 0, 0, 0, 0, 0, 0, 0, 0, 0, 0, 0, 0,
       0, 0, 0, 0, 0, 0, 0, 0, 0, 0, 0, 0, 0, 0, 0, 0, 0, 0, 0, 0, 0, 0,
       0, 0 ]
   class_labels: [ 1, 2, 4, 5, 6, 7 ]
   missing_subst: [ 0., 0., 0., 0., 0., 0., 0., 0., 0., 0., 0., 0., 0.,
       0., 0., 0., 0., 0., 0., 0., 0., 0., 0. ]
   oob_error: 6.0606060606060608e-02
   ntrees: 100
   trees:
      -
         nodes:
            -
               depth: 0
               value: 4.
               norm_class_idx: 2
               splits:
                  - { var:1, quality:3.1588304519653320e+01,
                      le:1.1550000000000000e+02 }
            -
               depth: 1
               value: 4.
               norm_class_idx: 2
               splits:
                  - { var:18, quality:3.0843990325927734e+01,
                      le:2.6181139945983887e+00 }
            -
               depth: 2
               value: 4.
               norm_class_idx: 2
               splits:
                  - { var:6, quality:2.1666666030883789e+01,
                      le:6.9060742855072021e-01 }
            -
               depth: 3
               value: 4.
               norm_class_idx: 2
            -
               depth: 3
               value: 6.
               norm_class_idx: 4
            -
               depth: 2
               value: 7.
               norm_class_idx: 5
               splits:
                  - { var:3, quality:25., le:3.7500000000000000e+01 }
            -
               depth: 3
               value: 7.
               norm_class_idx: 5
            -
               depth: 3
               value: 6.
               norm_class_idx: 4
               splits:
                  - { var:3, quality:1.2800000190734863e+01,
                      le:8.5500000000000000e+01 }
            -
               depth: 4
               value: 6.
               norm_class_idx: 4
               splits:
                  - { var:3, quality:1.2153845787048340e+01,
                      le:5.1500000000000000e+01 }
            -
               depth: 5
               value: 4.
               norm_class_idx: 2
            -
               depth: 5
               value: 6.
               norm_class_idx: 4
            -
               depth: 4
               value: 5.
               norm_class_idx: 3
            -
               depth: 1
               value: 1.
               norm_class_idx: 0
               splits:
                  - { var:8, quality:2.5761133193969727e+01,
                      le:1.4413404464721680e+00 }
            -
               depth: 2
               value: 2.
               norm_class_idx: 1
               splits:
                  - { var:3, quality:1.8631578445434570e+01, le:189. }
            -
               depth: 3
               value: 2.
               norm_class_idx: 1
               splits:
                  - { var:1, quality:1.5542857170104980e+01, le:176. }
            -
               depth: 4
               value: 1.
               norm_class_idx: 0
            -
               depth: 4
               value: 2.
               norm_class_idx: 1
               splits:
                  - { var:20, quality:14., le:4.6540896606445313e+02 }
            -
               depth: 5
               value: 2.
               norm_class_idx: 1
            -
               depth: 5
               value: 1.
               norm_class_idx: 0
            -
               depth: 3
               value: 1.
               norm_class_idx: 0
            -
               depth: 2
               value: 5.
               norm_class_idx: 3
               splits:
                  - { var:16, quality:1.5633333206176758e+01,
                      le:9.9906884133815765e-03 }
            -
               depth: 3
               value: 1.
               norm_class_idx: 0
            -
               depth: 3
               value: 5.
               norm_class_idx: 3
               splits:
                  - { var:12, quality:1.3399999618530273e+01,
                      le:8.5229241847991943e-01 }
            -
               depth: 4
               value: 5.
               norm_class_idx: 3
            -
               depth: 4
               value: 5.
               norm_class_idx: 3
      -
         nodes:
            -
               depth: 0
               value: 4.
               norm_class_idx: 2
               splits:
                  - { var:2, quality:3.5396823883056641e+01,
                      le:4.4580078125000000e+01 }
            -
               depth: 1
               value: 7.
               norm_class_idx: 5
               splits:
                  - { var:0, quality:1.5142857551574707e+01,
                      le:3.5704994201660156e+01 }
            -
               depth: 2
               value: 7.
               norm_class_idx: 5
            -
               depth: 2
               value: 7.
               norm_class_idx: 5
            -
               depth: 1
               value: 4.
               norm_class_idx: 2
               splits:
                  - { var:2, quality:3.6383335113525391e+01,
                      le:9.3555541992187500e+01 }
            -
               depth: 2
               value: 4.
               norm_class_idx: 2
               splits:
                  - { var:4, quality:2.2090909957885742e+01,
                      le:6.8689041137695313e+01 }
            -
               depth: 3
               value: 4.
               norm_class_idx: 2
               splits:
                  - { var:1, quality:2.0666666030883789e+01, le:48. }
            -
               depth: 4
               value: 4.
               norm_class_idx: 2
            -
               depth: 4
               value: 4.
               norm_class_idx: 2
            -
               depth: 3
               value: 6.
               norm_class_idx: 4
            -
               depth: 2
               value: 1.
               norm_class_idx: 0
               splits:
                  - { var:3, quality:2.6602891921997070e+01,
                      le:1.5650000000000000e+02 }
            -
               depth: 3
               value: 5.
               norm_class_idx: 3
               splits:
                  - { var:13, quality:1.8521007537841797e+01,
                      le:9.0999996662139893e-01 }
            -
               depth: 4
               value: 5.
               norm_class_idx: 3
               splits:
                  - { var:14, quality:1.1600000381469727e+01,
                      le:3.3635932207107544e-01 }
            -
               depth: 5
               value: 4.
               norm_class_idx: 2
            -
               depth: 5
               value: 5.
               norm_class_idx: 3
            -
               depth: 4
               value: 1.
               norm_class_idx: 0
               splits:
                  - { var:16, quality:1.2428571701049805e+01,
                      le:1.7779275774955750e-02 }
            -
               depth: 5
               value: 4.
               norm_class_idx: 2
            -
               depth: 5
               value: 1.
               norm_class_idx: 0
            -
               depth: 3
               value: 2.
               norm_class_idx: 1
               splits:
                  - { var:2, quality:1.8920000076293945e+01,
                      le:1.7848342895507813e+02 }
            -
               depth: 4
               value: 2.
               norm_class_idx: 1
               splits:
                  - { var:13, quality:1.8454545974731445e+01,
                      le:9.3999999761581421e-01 }
            -
               depth: 5
               value: 1.
               norm_class_idx: 0
            -
               depth: 5
               value: 2.
               norm_class_idx: 1
            -
               depth: 4
               value: 1.
               norm_class_idx: 0
      -
         nodes:
            -
               depth: 0
               value: 4.
               norm_class_idx: 2
               splits:
                  - { var:18, quality:3.3870731353759766e+01,
                      le:9.3761138916015625e+00 }
            -
               depth: 1
               value: 4.
               norm_class_idx: 2
               splits:
                  - { var:5, quality:3.7082283020019531e+01, le:95. }
            -
               depth: 2
               value: 4.
               norm_class_idx: 2
               splits:
                  - { var:10, quality:2.5224243164062500e+01,
                      le:7.9061549901962280e-01 }
            -
               depth: 3
               value: 4.
               norm_class_idx: 2
               splits:
                  - { var:18, quality:9.0357141494750977e+00,
                      le:2.6441140174865723e+00 }
            -
               depth: 4
               value: 4.
               norm_class_idx: 2
            -
               depth: 4
               value: 6.
               norm_class_idx: 4
            -
               depth: 3
               value: 4.
               norm_class_idx: 2
               splits:
                  - { var:20, quality:22., le:2.0798255920410156e+02 }
            -
               depth: 4
               value: 4.
               norm_class_idx: 2
            -
               depth: 4
               value: 5.
               norm_class_idx: 3
            -
               depth: 2
               value: 2.
               norm_class_idx: 1
               splits:
                  - { var:5, quality:2.4412956237792969e+01, le:147. }
            -
               depth: 3
               value: 5.
               norm_class_idx: 3
               splits:
                  - { var:14, quality:1.2199999809265137e+01,
                      le:2.1973210573196411e-01 }
            -
               depth: 4
               value: 1.
               norm_class_idx: 0
            -
               depth: 4
               value: 5.
               norm_class_idx: 3
               splits:
                  - { var:3, quality:1.3153845787048340e+01,
                      le:1.7750000000000000e+02 }
            -
               depth: 5
               value: 5.
               norm_class_idx: 3
            -
               depth: 5
               value: 1.
               norm_class_idx: 0
            -
               depth: 3
               value: 2.
               norm_class_idx: 1
               splits:
                  - { var:12, quality:1.9318181991577148e+01,
                      le:8.6970722675323486e-01 }
            -
               depth: 4
               value: 1.
               norm_class_idx: 0
            -
               depth: 4
               value: 2.
               norm_class_idx: 1
               splits:
                  - { var:0, quality:22., le:1.7758219909667969e+02 }
            -
               depth: 5
               value: 1.
               norm_class_idx: 0
            -
               depth: 5
               value: 2.
               norm_class_idx: 1
            -
               depth: 1
               value: 7.
               norm_class_idx: 5
               splits:
                  - { var:20, quality:1.8666666030883789e+01,
                      le:1.9062008666992188e+02 }
            -
               depth: 2
               value: 7.
               norm_class_idx: 5
            -
               depth: 2
               value: 6.
               norm_class_idx: 4
      -
         nodes:
            -
               depth: 0
               value: 2.
               norm_class_idx: 1
               splits:
                  - { var:3, quality:3.1354074478149414e+01,
                      le:1.5650000000000000e+02 }
            -
               depth: 1
               value: 5.
               norm_class_idx: 3
               splits:
                  - { var:4, quality:2.8343053817749023e+01,
                      le:1.0094258117675781e+02 }
            -
               depth: 2
               value: 4.
               norm_class_idx: 2
               splits:
                  - { var:21, quality:2.3556911468505859e+01,
                      le:4.4285712242126465e+00 }
            -
               depth: 3
               value: 7.
               norm_class_idx: 5
               splits:
                  - { var:2, quality:1.0666666984558105e+01,
                      le:3.5827175140380859e+01 }
            -
               depth: 4
               value: 7.
               norm_class_idx: 5
            -
               depth: 4
               value: 7.
               norm_class_idx: 5
            -
               depth: 3
               value: 4.
               norm_class_idx: 2
               splits:
                  - { var:18, quality:2.4947618484497070e+01,
                      le:3.0058324337005615e+00 }
            -
               depth: 4
               value: 4.
               norm_class_idx: 2
               splits:
                  - { var:6, quality:20., le:7.0610523223876953e-01 }
            -
               depth: 5
               value: 4.
               norm_class_idx: 2
            -
               depth: 5
               value: 1.
               norm_class_idx: 0
            -
               depth: 4
               value: 6.
               norm_class_idx: 4
               splits:
                  - { var:3, quality:1.3705882072448730e+01,
                      le:5.1500000000000000e+01 }
            -
               depth: 5
               value: 5.
               norm_class_idx: 3
            -
               depth: 5
               value: 6.
               norm_class_idx: 4
            -
               depth: 2
               value: 5.
               norm_class_idx: 3
               splits:
                  - { var:18, quality:1.7458333969116211e+01,
                      le:3.2324674129486084e+00 }
            -
               depth: 3
               value: 1.
               norm_class_idx: 0
            -
               depth: 3
               value: 5.
               norm_class_idx: 3
               splits:
                  - { var:1, quality:16., le:1.7250000000000000e+02 }
            -
               depth: 4
               value: 5.
               norm_class_idx: 3
            -
               depth: 4
               value: 2.
               norm_class_idx: 1
            -
               depth: 1
               value: 2.
               norm_class_idx: 1
               splits:
                  - { var:6, quality:2.0391304016113281e+01,
                      le:5.5279576778411865e-01 }
            -
               depth: 2
               value: 1.
               norm_class_idx: 0
            -
               depth: 2
               value: 2.
               norm_class_idx: 1
               splits:
                  - { var:5, quality:23., le:183. }
            -
               depth: 3
               value: 2.
               norm_class_idx: 1
            -
               depth: 3
               value: 1.
               norm_class_idx: 0
      -
         nodes:
            -
               depth: 0
               value: 7.
               norm_class_idx: 5
               splits:
                  - { var:21, quality:3.6629611968994141e+01,
                      le:4.4285712242126465e+00 }
            -
               depth: 1
               value: 7.
               norm_class_idx: 5
               splits:
                  - { var:10, quality:2.1757575988769531e+01,
                      le:8.8155138492584229e-01 }
            -
               depth: 2
               value: 7.
               norm_class_idx: 5
               splits:
                  - { var:1, quality:22., le:1.2500000000000000e+01 }
            -
               depth: 3
               value: 6.
               norm_class_idx: 4
            -
               depth: 3
               value: 7.
               norm_class_idx: 5
            -
               depth: 2
               value: 7.
               norm_class_idx: 5
            -
               depth: 1
               value: 4.
               norm_class_idx: 2
               splits:
                  - { var:4, quality:3.0734609603881836e+01,
                      le:9.9081436157226563e+01 }
            -
               depth: 2
               value: 4.
               norm_class_idx: 2
               splits:
                  - { var:3, quality:1.9565217971801758e+01,
                      le:7.7500000000000000e+01 }
            -
               depth: 3
               value: 6.
               norm_class_idx: 4
               splits:
                  - { var:5, quality:1.2660714149475098e+01,
                      le:4.7500000000000000e+01 }
            -
               depth: 4
               value: 4.
               norm_class_idx: 2
            -
               depth: 4
               value: 6.
               norm_class_idx: 4
               splits:
                  - { var:6, quality:13., le:4.4187474250793457e-01 }
            -
               depth: 5
               value: 4.
               norm_class_idx: 2
            -
               depth: 5
               value: 6.
               norm_class_idx: 4
            -
               depth: 3
               value: 4.
               norm_class_idx: 2
            -
               depth: 2
               value: 5.
               norm_class_idx: 3
               splits:
                  - { var:8, quality:2.8682609558105469e+01,
                      le:1.4380631446838379e+00 }
            -
               depth: 3
               value: 2.
               norm_class_idx: 1
               splits:
                  - { var:3, quality:1.3882352828979492e+01,
                      le:1.9150000000000000e+02 }
            -
               depth: 4
               value: 2.
               norm_class_idx: 1
               splits:
                  - { var:5, quality:1.5142857551574707e+01,
                      le:1.8350000000000000e+02 }
            -
               depth: 5
               value: 2.
               norm_class_idx: 1
            -
               depth: 5
               value: 1.
               norm_class_idx: 0
            -
               depth: 4
               value: 1.
               norm_class_idx: 0
            -
               depth: 3
               value: 5.
               norm_class_idx: 3
               splits:
                  - { var:20, quality:1.8799999237060547e+01,
                      le:3.3047192382812500e+02 }
            -
               depth: 4
               value: 5.
               norm_class_idx: 3
            -
               depth: 4
               value: 5.
               norm_class_idx: 3
      -
         nodes:
            -
               depth: 0
               value: 5.
               norm_class_idx: 3
               splits:
                  - { var:1, quality:3.4326828002929688e+01,
                      le:1.7550000000000000e+02 }
            -
               depth: 1
               value: 5.
               norm_class_idx: 3
               splits:
                  - { var:1, quality:3.2262321472167969e+01, le:32. }
            -
               depth: 2
               value: 7.
               norm_class_idx: 5
               splits:
                  - { var:0, quality:1.7666666030883789e+01,
                      le:3.5704994201660156e+01 }
            -
               depth: 3
               value: 7.
               norm_class_idx: 5
            -
               depth: 3
               value: 6.
               norm_class_idx: 4
            -
               depth: 2
               value: 5.
               norm_class_idx: 3
               splits:
                  - { var:4, quality:3.0660606384277344e+01,
                      le:9.9970565795898438e+01 }
            -
               depth: 3
               value: 4.
               norm_class_idx: 2
               splits:
                  - { var:14, quality:1.6357143402099609e+01,
                      le:2.6514711976051331e-01 }
            -
               depth: 4
               value: 4.
               norm_class_idx: 2
               splits:
                  - { var:8, quality:1.0181818008422852e+01,
                      le:8.3674716949462891e-01 }
            -
               depth: 5
               value: 1.
               norm_class_idx: 0
            -
               depth: 5
               value: 4.
               norm_class_idx: 2
            -
               depth: 4
               value: 6.
               norm_class_idx: 4
               splits:
                  - { var:16, quality:1.4600000381469727e+01,
                      le:2.3065268993377686e-01 }
            -
               depth: 5
               value: 4.
               norm_class_idx: 2
            -
               depth: 5
               value: 6.
               norm_class_idx: 4
            -
               depth: 3
               value: 5.
               norm_class_idx: 3
               splits:
                  - { var:1, quality:2.0666666030883789e+01,
                      le:1.6750000000000000e+02 }
            -
               depth: 4
               value: 5.
               norm_class_idx: 3
               splits:
                  - { var:8, quality:1.8782608032226563e+01,
                      le:1.2101728916168213e+00 }
            -
               depth: 5
               value: 1.
               norm_class_idx: 0
            -
               depth: 5
               value: 5.
               norm_class_idx: 3
            -
               depth: 4
               value: 1.
               norm_class_idx: 0
            -
               depth: 1
               value: 2.
               norm_class_idx: 1
               splits:
                  - { var:2, quality:1.8105262756347656e+01,
                      le:1.8350640869140625e+02 }
            -
               depth: 2
               value: 2.
               norm_class_idx: 1
               splits:
                  - { var:4, quality:19., le:1.6643478393554688e+02 }
            -
               depth: 3
               value: 2.
               norm_class_idx: 1
            -
               depth: 3
               value: 1.
               norm_class_idx: 0
            -
               depth: 2
               value: 1.
               norm_class_idx: 0
      -
         nodes:
            -
               depth: 0
               value: 4.
               norm_class_idx: 2
               splits:
                  - { var:2, quality:3.7879516601562500e+01,
                      le:4.4580078125000000e+01 }
            -
               depth: 1
               value: 7.
               norm_class_idx: 5
            -
               depth: 1
               value: 4.
               norm_class_idx: 2
               splits:
                  - { var:20, quality:3.4346939086914063e+01,
                      le:2.0654360961914063e+02 }
            -
               depth: 2
               value: 4.
               norm_class_idx: 2
               splits:
                  - { var:5, quality:2.3600000381469727e+01, le:95. }
            -
               depth: 3
               value: 4.
               norm_class_idx: 2
               splits:
                  - { var:18, quality:2.5280000686645508e+01,
                      le:3.1453614234924316e+00 }
            -
               depth: 4
               value: 4.
               norm_class_idx: 2
               splits:
                  - { var:14, quality:25., le:1.6083049774169922e-01 }
            -
               depth: 5
               value: 1.
               norm_class_idx: 0
            -
               depth: 5
               value: 4.
               norm_class_idx: 2
            -
               depth: 4
               value: 6.
               norm_class_idx: 4
            -
               depth: 3
               value: 1.
               norm_class_idx: 0
            -
               depth: 2
               value: 5.
               norm_class_idx: 3
               splits:
                  - { var:8, quality:3.0722408294677734e+01,
                      le:1.4524221420288086e+00 }
            -
               depth: 3
               value: 2.
               norm_class_idx: 1
               splits:
                  - { var:5, quality:1.9444444656372070e+01,
                      le:1.8050000000000000e+02 }
            -
               depth: 4
               value: 2.
               norm_class_idx: 1
               splits:
                  - { var:16, quality:18., le:-6.4670217037200928e-01 }
            -
               depth: 5
               value: 1.
               norm_class_idx: 0
            -
               depth: 5
               value: 2.
               norm_class_idx: 1
            -
               depth: 4
               value: 1.
               norm_class_idx: 0
            -
               depth: 3
               value: 5.
               norm_class_idx: 3
               splits:
                  - { var:6, quality:2.0750000000000000e+01,
                      le:4.4158238172531128e-01 }
            -
               depth: 4
               value: 5.
               norm_class_idx: 3
            -
               depth: 4
               value: 1.
               norm_class_idx: 0
      -
         nodes:
            -
               depth: 0
               value: 7.
               norm_class_idx: 5
               splits:
                  - { var:15, quality:2.9419933319091797e+01,
                      le:1.1999999731779099e-01 }
            -
               depth: 1
               value: 7.
               norm_class_idx: 5
               splits:
                  - { var:3, quality:3.2326007843017578e+01,
                      le:3.7500000000000000e+01 }
            -
               depth: 2
               value: 7.
               norm_class_idx: 5
               splits:
                  - { var:14, quality:21., le:1.9514197111129761e-01 }
            -
               depth: 3
               value: 6.
               norm_class_idx: 4
            -
               depth: 3
               value: 7.
               norm_class_idx: 5
            -
               depth: 2
               value: 2.
               norm_class_idx: 1
               splits:
                  - { var:4, quality:2.3818181991577148e+01,
                      le:9.8872009277343750e+01 }
            -
               depth: 3
               value: 4.
               norm_class_idx: 2
               splits:
                  - { var:14, quality:1.7166666030883789e+01,
                      le:2.6514711976051331e-01 }
            -
               depth: 4
               value: 4.
               norm_class_idx: 2
               splits:
                  - { var:10, quality:12., le:6.9818365573883057e-01 }
            -
               depth: 5
               value: 1.
               norm_class_idx: 0
            -
               depth: 5
               value: 4.
               norm_class_idx: 2
            -
               depth: 4
               value: 6.
               norm_class_idx: 4
            -
               depth: 3
               value: 2.
               norm_class_idx: 1
               splits:
                  - { var:16, quality:2.1895652770996094e+01,
                      le:-3.4781873226165771e-02 }
            -
               depth: 4
               value: 2.
               norm_class_idx: 1
               splits:
                  - { var:4, quality:2.1111110687255859e+01,
                      le:1.6877925109863281e+02 }
            -
               depth: 5
               value: 2.
               norm_class_idx: 1
            -
               depth: 5
               value: 1.
               norm_class_idx: 0
            -
               depth: 4
               value: 1.
               norm_class_idx: 0
            -
               depth: 1
               value: 5.
               norm_class_idx: 3
               splits:
                  - { var:0, quality:2.3988889694213867e+01,
                      le:1.1243014526367188e+02 }
            -
               depth: 2
               value: 4.
               norm_class_idx: 2
            -
               depth: 2
               value: 5.
               norm_class_idx: 3
               splits:
                  - { var:14, quality:20., le:2.9748290777206421e-01 }
            -
               depth: 3
               value: 1.
               norm_class_idx: 0
            -
               depth: 3
               value: 5.
               norm_class_idx: 3
      -
         nodes:
            -
               depth: 0
               value: 5.
               norm_class_idx: 3
               splits:
                  - { var:6, quality:3.2500000000000000e+01,
                      le:4.9727532267570496e-01 }
            -
               depth: 1
               value: 5.
               norm_class_idx: 3
               splits:
                  - { var:4, quality:2.8600000381469727e+01,
                      le:8.7715354919433594e+01 }
            -
               depth: 2
               value: 4.
               norm_class_idx: 2
            -
               depth: 2
               value: 5.
               norm_class_idx: 3
            -
               depth: 1
               value: 7.
               norm_class_idx: 5
               splits:
                  - { var:5, quality:2.8176292419433594e+01, le:31. }
            -
               depth: 2
               value: 7.
               norm_class_idx: 5
               splits:
                  - { var:5, quality:21., le:15. }
            -
               depth: 3
               value: 6.
               norm_class_idx: 4
            -
               depth: 3
               value: 7.
               norm_class_idx: 5
            -
               depth: 2
               value: 2.
               norm_class_idx: 1
               splits:
                  - { var:1, quality:2.2896295547485352e+01,
                      le:1.6650000000000000e+02 }
            -
               depth: 3
               value: 4.
               norm_class_idx: 2
               splits:
                  - { var:6, quality:1.3173913002014160e+01,
                      le:6.8252706527709961e-01 }
            -
               depth: 4
               value: 4.
               norm_class_idx: 2
               splits:
                  - { var:1, quality:1.3261538505554199e+01, le:69. }
            -
               depth: 5
               value: 6.
               norm_class_idx: 4
            -
               depth: 5
               value: 4.
               norm_class_idx: 2
            -
               depth: 4
               value: 1.
               norm_class_idx: 0
            -
               depth: 3
               value: 2.
               norm_class_idx: 1
               splits:
                  - { var:4, quality:20., le:1.7216268920898438e+02 }
            -
               depth: 4
               value: 2.
               norm_class_idx: 1
            -
               depth: 4
               value: 1.
               norm_class_idx: 0
      -
         nodes:
            -
               depth: 0
               value: 4.
               norm_class_idx: 2
               splits:
                  - { var:4, quality:3.5226852416992188e+01,
                      le:9.1281883239746094e+01 }
            -
               depth: 1
               value: 4.
               norm_class_idx: 2
               splits:
                  - { var:21, quality:3.2686805725097656e+01,
                      le:4.4285712242126465e+00 }
            -
               depth: 2
               value: 7.
               norm_class_idx: 5
               splits:
                  - { var:18, quality:17., le:2.2722258567810059e+00 }
            -
               depth: 3
               value: 6.
               norm_class_idx: 4
            -
               depth: 3
               value: 7.
               norm_class_idx: 5
            -
               depth: 2
               value: 4.
               norm_class_idx: 2
               splits:
                  - { var:14, quality:2.7375000000000000e+01,
                      le:2.6514711976051331e-01 }
            -
               depth: 3
               value: 4.
               norm_class_idx: 2
            -
               depth: 3
               value: 6.
               norm_class_idx: 4
               splits:
                  - { var:21, quality:9.6923074722290039e+00,
                      le:5.9285713195800781e+01 }
            -
               depth: 4
               value: 6.
               norm_class_idx: 4
               splits:
                  - { var:1, quality:9.8666667938232422e+00,
                      le:4.9500000000000000e+01 }
            -
               depth: 5
               value: 7.
               norm_class_idx: 5
            -
               depth: 5
               value: 6.
               norm_class_idx: 4
            -
               depth: 4
               value: 4.
               norm_class_idx: 2
            -
               depth: 1
               value: 2.
               norm_class_idx: 1
               splits:
                  - { var:12, quality:3.1760435104370117e+01,
                      le:8.6238849163055420e-01 }
            -
               depth: 2
               value: 5.
               norm_class_idx: 3
               splits:
                  - { var:15, quality:1.7500000000000000e+01,
                      le:1.0000000149011612e-01 }
            -
               depth: 3
               value: 5.
               norm_class_idx: 3
            -
               depth: 3
               value: 5.
               norm_class_idx: 3
            -
               depth: 2
               value: 2.
               norm_class_idx: 1
               splits:
                  - { var:5, quality:2.0826086044311523e+01,
                      le:1.8050000000000000e+02 }
            -
               depth: 3
               value: 2.
               norm_class_idx: 1
               splits:
                  - { var:2, quality:1.9299999237060547e+01,
                      le:1.1466032409667969e+02 }
            -
               depth: 4
               value: 1.
               norm_class_idx: 0
            -
               depth: 4
               value: 2.
               norm_class_idx: 1
               splits:
                  - { var:8, quality:1.8105262756347656e+01,
                      le:1.4942618608474731e+00 }
            -
               depth: 5
               value: 2.
               norm_class_idx: 1
            -
               depth: 5
               value: 1.
               norm_class_idx: 0
            -
               depth: 3
               value: 1.
               norm_class_idx: 0
      -
         nodes:
            -
               depth: 0
               value: 5.
               norm_class_idx: 3
               splits:
                  - { var:2, quality:3.9186046600341797e+01,
                      le:4.5792770385742188e+01 }
            -
               depth: 1
               value: 7.
               norm_class_idx: 5
            -
               depth: 1
               value: 5.
               norm_class_idx: 3
               splits:
                  - { var:0, quality:3.9197170257568359e+01,
                      le:1.6455642700195313e+02 }
            -
               depth: 2
               value: 5.
               norm_class_idx: 3
               splits:
                  - { var:4, quality:3.8452381134033203e+01,
                      le:1.0073314666748047e+02 }
            -
               depth: 3
               value: 4.
               norm_class_idx: 2
               splits:
                  - { var:4, quality:1.7571428298950195e+01,
                      le:5.9763324737548828e+01 }
            -
               depth: 4
               value: 4.
               norm_class_idx: 2
            -
               depth: 4
               value: 1.
               norm_class_idx: 0
               splits:
                  - { var:10, quality:7.4000000953674316e+00,
                      le:6.0471671819686890e-01 }
            -
               depth: 5
               value: 1.
               norm_class_idx: 0
            -
               depth: 5
               value: 4.
               norm_class_idx: 2
            -
               depth: 3
               value: 5.
               norm_class_idx: 3
               splits:
                  - { var:16, quality:3.0055555343627930e+01,
                      le:-2.4769324064254761e-01 }
            -
               depth: 4
               value: 1.
               norm_class_idx: 0
            -
               depth: 4
               value: 5.
               norm_class_idx: 3
               splits:
                  - { var:1, quality:3.0529411315917969e+01,
                      le:1.7250000000000000e+02 }
            -
               depth: 5
               value: 5.
               norm_class_idx: 3
            -
               depth: 5
               value: 2.
               norm_class_idx: 1
            -
               depth: 2
               value: 2.
               norm_class_idx: 1
               splits:
                  - { var:4, quality:19., le:1.7276641845703125e+02 }
            -
               depth: 3
               value: 2.
               norm_class_idx: 1
            -
               depth: 3
               value: 1.
               norm_class_idx: 0
      -
         nodes:
            -
               depth: 0
               value: 4.
               norm_class_idx: 2
               splits:
                  - { var:4, quality:3.6397514343261719e+01,
                      le:8.7715354919433594e+01 }
            -
               depth: 1
               value: 4.
               norm_class_idx: 2
               splits:
                  - { var:16, quality:4.3142856597900391e+01,
                      le:3.3946269750595093e-01 }
            -
               depth: 2
               value: 4.
               norm_class_idx: 2
            -
               depth: 2
               value: 7.
               norm_class_idx: 5
               splits:
                  - { var:4, quality:28., le:4.8513034820556641e+01 }
            -
               depth: 3
               value: 7.
               norm_class_idx: 5
            -
               depth: 3
               value: 6.
               norm_class_idx: 4
            -
               depth: 1
               value: 5.
               norm_class_idx: 3
               splits:
                  - { var:6, quality:2.6231237411499023e+01,
                      le:5.7768642902374268e-01 }
            -
               depth: 2
               value: 5.
               norm_class_idx: 3
               splits:
                  - { var:6, quality:1.9558441162109375e+01,
                      le:5.1341211795806885e-01 }
            -
               depth: 3
               value: 5.
               norm_class_idx: 3
               splits:
                  - { var:16, quality:1.9142856597900391e+01,
                      le:1.2165247462689877e-02 }
            -
               depth: 4
               value: 1.
               norm_class_idx: 0
            -
               depth: 4
               value: 5.
               norm_class_idx: 3
            -
               depth: 3
               value: 1.
               norm_class_idx: 0
            -
               depth: 2
               value: 2.
               norm_class_idx: 1
               splits:
                  - { var:3, quality:1.5133333206176758e+01, le:135. }
            -
               depth: 3
               value: 1.
               norm_class_idx: 0
            -
               depth: 3
               value: 2.
               norm_class_idx: 1
               splits:
                  - { var:1, quality:15., le:1.6650000000000000e+02 }
            -
               depth: 4
               value: 1.
               norm_class_idx: 0
            -
               depth: 4
               value: 2.
               norm_class_idx: 1
      -
         nodes:
            -
               depth: 0
               value: 4.
               norm_class_idx: 2
               splits:
                  - { var:16, quality:3.6581954956054688e+01,
                      le:2.8196042776107788e-01 }
            -
               depth: 1
               value: 4.
               norm_class_idx: 2
               splits:
                  - { var:1, quality:3.4003334045410156e+01,
                      le:1.6950000000000000e+02 }
            -
               depth: 2
               value: 4.
               norm_class_idx: 2
               splits:
                  - { var:0, quality:3.1841270446777344e+01,
                      le:1.1243014526367188e+02 }
            -
               depth: 3
               value: 4.
               norm_class_idx: 2
               splits:
                  - { var:10, quality:20., le:6.4643710851669312e-01 }
            -
               depth: 4
               value: 1.
               norm_class_idx: 0
            -
               depth: 4
               value: 4.
               norm_class_idx: 2
            -
               depth: 3
               value: 5.
               norm_class_idx: 3
               splits:
                  - { var:12, quality:2.1671428680419922e+01,
                      le:8.7750566005706787e-01 }
            -
               depth: 4
               value: 5.
               norm_class_idx: 3
               splits:
                  - { var:10, quality:20., le:6.3027739524841309e-01 }
            -
               depth: 5
               value: 1.
               norm_class_idx: 0
            -
               depth: 5
               value: 5.
               norm_class_idx: 3
            -
               depth: 4
               value: 4.
               norm_class_idx: 2
            -
               depth: 2
               value: 2.
               norm_class_idx: 1
               splits:
                  - { var:12, quality:1.9909090042114258e+01,
                      le:9.1606098413467407e-01 }
            -
               depth: 3
               value: 1.
               norm_class_idx: 0
               splits:
                  - { var:16, quality:9.3999996185302734e+00,
                      le:-1.9626599550247192e-01 }
            -
               depth: 4
               value: 1.
               norm_class_idx: 0
            -
               depth: 4
               value: 2.
               norm_class_idx: 1
            -
               depth: 3
               value: 2.
               norm_class_idx: 1
            -
               depth: 1
               value: 7.
               norm_class_idx: 5
               splits:
                  - { var:2, quality:2.2818181991577148e+01,
                      le:5.0522514343261719e+01 }
            -
               depth: 2
               value: 7.
               norm_class_idx: 5
            -
               depth: 2
               value: 6.
               norm_class_idx: 4
               splits:
                  - { var:15, quality:9.3999996185302734e+00,
                      le:1.4000000059604645e-01 }
            -
               depth: 3
               value: 6.
               norm_class_idx: 4
            -
               depth: 3
               value: 7.
               norm_class_idx: 5
      -
         nodes:
            -
               depth: 0
               value: 2.
               norm_class_idx: 1
               splits:
                  - { var:1, quality:3.5927776336669922e+01,
                      le:1.6950000000000000e+02 }
            -
               depth: 1
               value: 5.
               norm_class_idx: 3
               splits:
                  - { var:21, quality:2.5964284896850586e+01,
                      le:4.4285712242126465e+00 }
            -
               depth: 2
               value: 7.
               norm_class_idx: 5
               splits:
                  - { var:5, quality:16., le:1.3500000000000000e+01 }
            -
               depth: 3
               value: 6.
               norm_class_idx: 4
            -
               depth: 3
               value: 7.
               norm_class_idx: 5
            -
               depth: 2
               value: 5.
               norm_class_idx: 3
               splits:
                  - { var:2, quality:2.2571428298950195e+01,
                      le:1.0120544433593750e+02 }
            -
               depth: 3
               value: 6.
               norm_class_idx: 4
               splits:
                  - { var:6, quality:1.3377778053283691e+01,
                      le:5.3413718938827515e-01 }
            -
               depth: 4
               value: 6.
               norm_class_idx: 4
               splits:
                  - { var:1, quality:1.1625000000000000e+01, le:50. }
            -
               depth: 5
               value: 5.
               norm_class_idx: 3
            -
               depth: 5
               value: 6.
               norm_class_idx: 4
            -
               depth: 4
               value: 4.
               norm_class_idx: 2
            -
               depth: 3
               value: 5.
               norm_class_idx: 3
               splits:
                  - { var:13, quality:1.9291666030883789e+01,
                      le:9.0999996662139893e-01 }
            -
               depth: 4
               value: 5.
               norm_class_idx: 3
               splits:
                  - { var:1, quality:1.4666666984558105e+01, le:167. }
            -
               depth: 5
               value: 5.
               norm_class_idx: 3
            -
               depth: 5
               value: 5.
               norm_class_idx: 3
            -
               depth: 4
               value: 1.
               norm_class_idx: 0
               splits:
                  - { var:18, quality:8.8888893127441406e+00,
                      le:1.1604254245758057e+00 }
            -
               depth: 5
               value: 4.
               norm_class_idx: 2
            -
               depth: 5
               value: 1.
               norm_class_idx: 0
            -
               depth: 1
               value: 2.
               norm_class_idx: 1
               splits:
                  - { var:5, quality:30., le:1.8050000000000000e+02 }
            -
               depth: 2
               value: 2.
               norm_class_idx: 1
            -
               depth: 2
               value: 1.
               norm_class_idx: 0
      -
         nodes:
            -
               depth: 0
               value: 7.
               norm_class_idx: 5
               splits:
                  - { var:4, quality:3.7282051086425781e+01,
                      le:4.0214939117431641e+01 }
            -
               depth: 1
               value: 7.
               norm_class_idx: 5
               splits:
                  - { var:14, quality:24., le:1.7226126790046692e-01 }
            -
               depth: 2
               value: 6.
               norm_class_idx: 4
            -
               depth: 2
               value: 7.
               norm_class_idx: 5
            -
               depth: 1
               value: 5.
               norm_class_idx: 3
               splits:
                  - { var:8, quality:3.0685283660888672e+01,
                      le:1.6775817871093750e+00 }
            -
               depth: 2
               value: 2.
               norm_class_idx: 1
               splits:
                  - { var:21, quality:2.6519062042236328e+01,
                      le:1.8728570556640625e+02 }
            -
               depth: 3
               value: 4.
               norm_class_idx: 2
               splits:
                  - { var:4, quality:1.9145454406738281e+01,
                      le:9.1373199462890625e+01 }
            -
               depth: 4
               value: 4.
               norm_class_idx: 2
               splits:
                  - { var:18, quality:20., le:3.0210959911346436e+00 }
            -
               depth: 5
               value: 4.
               norm_class_idx: 2
            -
               depth: 5
               value: 6.
               norm_class_idx: 4
            -
               depth: 4
               value: 1.
               norm_class_idx: 0
               splits:
                  - { var:18, quality:9.1999998092651367e+00,
                      le:9.7549891471862793e-01 }
            -
               depth: 5
               value: 4.
               norm_class_idx: 2
            -
               depth: 5
               value: 1.
               norm_class_idx: 0
            -
               depth: 3
               value: 2.
               norm_class_idx: 1
               splits:
                  - { var:3, quality:2.0105262756347656e+01, le:190. }
            -
               depth: 4
               value: 2.
               norm_class_idx: 1
               splits:
                  - { var:12, quality:19., le:8.8856309652328491e-01 }
            -
               depth: 5
               value: 1.
               norm_class_idx: 0
            -
               depth: 5
               value: 2.
               norm_class_idx: 1
            -
               depth: 4
               value: 1.
               norm_class_idx: 0
            -
               depth: 2
               value: 5.
               norm_class_idx: 3
               splits:
                  - { var:2, quality:1.9939393997192383e+01,
                      le:1.0164346313476563e+02 }
            -
               depth: 3
               value: 4.
               norm_class_idx: 2
            -
               depth: 3
               value: 5.
               norm_class_idx: 3
               splits:
                  - { var:15, quality:1.9100000381469727e+01,
                      le:1.0000000149011612e-01 }
            -
               depth: 4
               value: 1.
               norm_class_idx: 0
            -
               depth: 4
               value: 5.
               norm_class_idx: 3
               splits:
                  - { var:0, quality:20., le:1.1255018615722656e+02 }
            -
               depth: 5
               value: 4.
               norm_class_idx: 2
            -
               depth: 5
               value: 5.
               norm_class_idx: 3
      -
         nodes:
            -
               depth: 0
               value: 4.
               norm_class_idx: 2
               splits:
                  - { var:3, quality:3.3127529144287109e+01, le:153. }
            -
               depth: 1
               value: 4.
               norm_class_idx: 2
               splits:
                  - { var:2, quality:3.0778572082519531e+01,
                      le:4.4580078125000000e+01 }
            -
               depth: 2
               value: 7.
               norm_class_idx: 5
               splits:
                  - { var:1, quality:20., le:1.3500000000000000e+01 }
            -
               depth: 3
               value: 6.
               norm_class_idx: 4
            -
               depth: 3
               value: 7.
               norm_class_idx: 5
            -
               depth: 2
               value: 4.
               norm_class_idx: 2
               splits:
                  - { var:20, quality:3.0333333969116211e+01,
                      le:2.2939543151855469e+02 }
            -
               depth: 3
               value: 4.
               norm_class_idx: 2
               splits:
                  - { var:4, quality:2.2419048309326172e+01,
                      le:6.8634368896484375e+01 }
            -
               depth: 4
               value: 4.
               norm_class_idx: 2
               splits:
                  - { var:18, quality:20., le:3.1453614234924316e+00 }
            -
               depth: 5
               value: 4.
               norm_class_idx: 2
            -
               depth: 5
               value: 5.
               norm_class_idx: 3
            -
               depth: 4
               value: 6.
               norm_class_idx: 4
               splits:
                  - { var:12, quality:8.5714282989501953e+00,
                      le:8.7224441766738892e-01 }
            -
               depth: 5
               value: 6.
               norm_class_idx: 4
            -
               depth: 5
               value: 1.
               norm_class_idx: 0
            -
               depth: 3
               value: 5.
               norm_class_idx: 3
               splits:
                  - { var:10, quality:1.8125000000000000e+01,
                      le:7.2775816917419434e-01 }
            -
               depth: 4
               value: 1.
               norm_class_idx: 0
            -
               depth: 4
               value: 5.
               norm_class_idx: 3
               splits:
                  - { var:14, quality:15., le:2.9686391353607178e-01 }
            -
               depth: 5
               value: 1.
               norm_class_idx: 0
            -
               depth: 5
               value: 5.
               norm_class_idx: 3
            -
               depth: 1
               value: 2.
               norm_class_idx: 1
               splits:
                  - { var:5, quality:2.0780952453613281e+01,
                      le:1.6750000000000000e+02 }
            -
               depth: 2
               value: 2.
               norm_class_idx: 1
               splits:
                  - { var:8, quality:21., le:1.4882597923278809e+00 }
            -
               depth: 3
               value: 2.
               norm_class_idx: 1
            -
               depth: 3
               value: 5.
               norm_class_idx: 3
            -
               depth: 2
               value: 1.
               norm_class_idx: 0
      -
         nodes:
            -
               depth: 0
               value: 4.
               norm_class_idx: 2
               splits:
                  - { var:2, quality:3.4418518066406250e+01,
                      le:4.7269866943359375e+01 }
            -
               depth: 1
               value: 7.
               norm_class_idx: 5
               splits:
                  - { var:18, quality:19., le:2.2722258567810059e+00 }
            -
               depth: 2
               value: 6.
               norm_class_idx: 4
            -
               depth: 2
               value: 7.
               norm_class_idx: 5
            -
               depth: 1
               value: 4.
               norm_class_idx: 2
               splits:
                  - { var:3, quality:3.1875213623046875e+01, le:159. }
            -
               depth: 2
               value: 4.
               norm_class_idx: 2
               splits:
                  - { var:5, quality:2.8410257339477539e+01,
                      le:8.0500000000000000e+01 }
            -
               depth: 3
               value: 4.
               norm_class_idx: 2
               splits:
                  - { var:2, quality:2.1769229888916016e+01,
                      le:8.1767189025878906e+01 }
            -
               depth: 4
               value: 6.
               norm_class_idx: 4
               splits:
                  - { var:16, quality:1.7647058486938477e+01,
                      le:2.5598588585853577e-01 }
            -
               depth: 5
               value: 4.
               norm_class_idx: 2
            -
               depth: 5
               value: 6.
               norm_class_idx: 4
            -
               depth: 4
               value: 4.
               norm_class_idx: 2
            -
               depth: 3
               value: 5.
               norm_class_idx: 3
               splits:
                  - { var:15, quality:2.2309524536132813e+01,
                      le:1.0000000149011612e-01 }
            -
               depth: 4
               value: 1.
               norm_class_idx: 0
               splits:
                  - { var:5, quality:12., le:1.3650000000000000e+02 }
            -
               depth: 5
               value: 1.
               norm_class_idx: 0
            -
               depth: 5
               value: 5.
               norm_class_idx: 3
            -
               depth: 4
               value: 5.
               norm_class_idx: 3
               splits:
                  - { var:14, quality:14., le:2.7173015475273132e-01 }
            -
               depth: 5
               value: 4.
               norm_class_idx: 2
            -
               depth: 5
               value: 5.
               norm_class_idx: 3
            -
               depth: 2
               value: 2.
               norm_class_idx: 1
               splits:
                  - { var:8, quality:18., le:1.0559872388839722e+00 }
            -
               depth: 3
               value: 2.
               norm_class_idx: 1
            -
               depth: 3
               value: 1.
               norm_class_idx: 0
      -
         nodes:
            -
               depth: 0
               value: 4.
               norm_class_idx: 2
               splits:
                  - { var:2, quality:3.6867469787597656e+01,
                      le:4.3228183746337891e+01 }
            -
               depth: 1
               value: 7.
               norm_class_idx: 5
            -
               depth: 1
               value: 4.
               norm_class_idx: 2
               splits:
                  - { var:4, quality:3.4528572082519531e+01,
                      le:9.1281883239746094e+01 }
            -
               depth: 2
               value: 4.
               norm_class_idx: 2
               splits:
                  - { var:16, quality:2.8479999542236328e+01,
                      le:3.0245485901832581e-01 }
            -
               depth: 3
               value: 4.
               norm_class_idx: 2
               splits:
                  - { var:0, quality:25., le:3.9553863525390625e+01 }
            -
               depth: 4
               value: 1.
               norm_class_idx: 0
            -
               depth: 4
               value: 4.
               norm_class_idx: 2
            -
               depth: 3
               value: 6.
               norm_class_idx: 4
            -
               depth: 2
               value: 2.
               norm_class_idx: 1
               splits:
                  - { var:8, quality:3.0857143402099609e+01,
                      le:1.4218851327896118e+00 }
            -
               depth: 3
               value: 2.
               norm_class_idx: 1
               splits:
                  - { var:1, quality:2.0454545974731445e+01,
                      le:1.6350000000000000e+02 }
            -
               depth: 4
               value: 1.
               norm_class_idx: 0
            -
               depth: 4
               value: 2.
               norm_class_idx: 1
               splits:
                  - { var:5, quality:22., le:181. }
            -
               depth: 5
               value: 2.
               norm_class_idx: 1
            -
               depth: 5
               value: 1.
               norm_class_idx: 0
            -
               depth: 3
               value: 5.
               norm_class_idx: 3
               splits:
                  - { var:5, quality:1.7399999618530273e+01,
                      le:9.0500000000000000e+01 }
            -
               depth: 4
               value: 1.
               norm_class_idx: 0
            -
               depth: 4
               value: 5.
               norm_class_idx: 3
               splits:
                  - { var:1, quality:1.8105262756347656e+01,
                      le:1.6750000000000000e+02 }
            -
               depth: 5
               value: 5.
               norm_class_idx: 3
            -
               depth: 5
               value: 1.
               norm_class_idx: 0
      -
         nodes:
            -
               depth: 0
               value: 7.
               norm_class_idx: 5
               splits:
                  - { var:4, quality:3.7644443511962891e+01,
                      le:4.0516773223876953e+01 }
            -
               depth: 1
               value: 7.
               norm_class_idx: 5
               splits:
                  - { var:16, quality:2.8500000000000000e+01,
                      le:2.4878917634487152e-01 }
            -
               depth: 2
               value: 6.
               norm_class_idx: 4
            -
               depth: 2
               value: 7.
               norm_class_idx: 5
            -
               depth: 1
               value: 2.
               norm_class_idx: 1
               splits:
                  - { var:0, quality:2.8133333206176758e+01,
                      le:1.1406301116943359e+02 }
            -
               depth: 2
               value: 4.
               norm_class_idx: 2
               splits:
                  - { var:16, quality:2.6277778625488281e+01,
                      le:3.0245485901832581e-01 }
            -
               depth: 3
               value: 4.
               norm_class_idx: 2
               splits:
                  - { var:6, quality:18., le:3.6189097166061401e-01 }
            -
               depth: 4
               value: 5.
               norm_class_idx: 3
            -
               depth: 4
               value: 4.
               norm_class_idx: 2
            -
               depth: 3
               value: 6.
               norm_class_idx: 4
               splits:
                  - { var:12, quality:12., le:8.2271343469619751e-01 }
            -
               depth: 4
               value: 5.
               norm_class_idx: 3
            -
               depth: 4
               value: 6.
               norm_class_idx: 4
            -
               depth: 2
               value: 2.
               norm_class_idx: 1
               splits:
                  - { var:5, quality:2.2606060028076172e+01, le:168. }
            -
               depth: 3
               value: 2.
               norm_class_idx: 1
               splits:
                  - { var:12, quality:27., le:8.9401912689208984e-01 }
            -
               depth: 4
               value: 5.
               norm_class_idx: 3
               splits:
                  - { var:3, quality:1.1199999809265137e+01, le:135. }
            -
               depth: 5
               value: 1.
               norm_class_idx: 0
            -
               depth: 5
               value: 5.
               norm_class_idx: 3
            -
               depth: 4
               value: 2.
               norm_class_idx: 1
            -
               depth: 3
               value: 1.
               norm_class_idx: 0
      -
         nodes:
            -
               depth: 0
               value: 2.
               norm_class_idx: 1
               splits:
                  - { var:1, quality:4.2271694183349609e+01,
                      le:1.6950000000000000e+02 }
            -
               depth: 1
               value: 4.
               norm_class_idx: 2
               splits:
                  - { var:5, quality:3.3417140960693359e+01,
                      le:9.7500000000000000e+01 }
            -
               depth: 2
               value: 4.
               norm_class_idx: 2
               splits:
                  - { var:18, quality:3.4493591308593750e+01,
                      le:2.6181139945983887e+00 }
            -
               depth: 3
               value: 4.
               norm_class_idx: 2
               splits:
                  - { var:10, quality:26., le:1.2811614274978638e+00 }
            -
               depth: 4
               value: 4.
               norm_class_idx: 2
            -
               depth: 4
               value: 1.
               norm_class_idx: 0
            -
               depth: 3
               value: 7.
               norm_class_idx: 5
               splits:
                  - { var:21, quality:1.6833333969116211e+01,
                      le:4.4285712242126465e+00 }
            -
               depth: 4
               value: 7.
               norm_class_idx: 5
            -
               depth: 4
               value: 6.
               norm_class_idx: 4
               splits:
                  - { var:2, quality:6.4000000953674316e+00,
                      le:9.1352722167968750e+01 }
            -
               depth: 5
               value: 6.
               norm_class_idx: 4
            -
               depth: 5
               value: 1.
               norm_class_idx: 0
            -
               depth: 2
               value: 5.
               norm_class_idx: 3
               splits:
                  - { var:20, quality:1.7399999618530273e+01,
                      le:1.5245265197753906e+02 }
            -
               depth: 3
               value: 1.
               norm_class_idx: 0
            -
               depth: 3
               value: 5.
               norm_class_idx: 3
               splits:
                  - { var:10, quality:1.7600000381469727e+01,
                      le:1.1114852428436279e+00 }
            -
               depth: 4
               value: 5.
               norm_class_idx: 3
            -
               depth: 4
               value: 5.
               norm_class_idx: 3
            -
               depth: 1
               value: 2.
               norm_class_idx: 1
               splits:
                  - { var:4, quality:31., le:1.6877925109863281e+02 }
            -
               depth: 2
               value: 2.
               norm_class_idx: 1
            -
               depth: 2
               value: 1.
               norm_class_idx: 0
      -
         nodes:
            -
               depth: 0
               value: 4.
               norm_class_idx: 2
               splits:
                  - { var:5, quality:3.3893180847167969e+01, le:36. }
            -
               depth: 1
               value: 7.
               norm_class_idx: 5
               splits:
                  - { var:16, quality:22., le:2.2501108050346375e-01 }
            -
               depth: 2
               value: 4.
               norm_class_idx: 2
            -
               depth: 2
               value: 7.
               norm_class_idx: 5
            -
               depth: 1
               value: 4.
               norm_class_idx: 2
               splits:
                  - { var:1, quality:3.0692810058593750e+01,
                      le:1.7250000000000000e+02 }
            -
               depth: 2
               value: 4.
               norm_class_idx: 2
               splits:
                  - { var:5, quality:2.7462474822998047e+01, le:79. }
            -
               depth: 3
               value: 4.
               norm_class_idx: 2
               splits:
                  - { var:1, quality:2.2380952835083008e+01,
                      le:6.6500000000000000e+01 }
            -
               depth: 4
               value: 6.
               norm_class_idx: 4
               splits:
                  - { var:5, quality:1.5181818008422852e+01,
                      le:4.9500000000000000e+01 }
            -
               depth: 5
               value: 4.
               norm_class_idx: 2
            -
               depth: 5
               value: 6.
               norm_class_idx: 4
            -
               depth: 4
               value: 4.
               norm_class_idx: 2
            -
               depth: 3
               value: 1.
               norm_class_idx: 0
               splits:
                  - { var:8, quality:2.1153846740722656e+01,
                      le:1.4422036409378052e+00 }
            -
               depth: 4
               value: 1.
               norm_class_idx: 0
               splits:
                  - { var:15, quality:1.4153845787048340e+01,
                      le:1.1999999731779099e-01 }
            -
               depth: 5
               value: 1.
               norm_class_idx: 0
            -
               depth: 5
               value: 4.
               norm_class_idx: 2
            -
               depth: 4
               value: 5.
               norm_class_idx: 3
               splits:
                  - { var:1, quality:1.1500000000000000e+01,
                      le:1.3350000000000000e+02 }
            -
               depth: 5
               value: 5.
               norm_class_idx: 3
            -
               depth: 5
               value: 5.
               norm_class_idx: 3
            -
               depth: 2
               value: 2.
               norm_class_idx: 1
               splits:
                  - { var:12, quality:1.5666666984558105e+01,
                      le:8.9401912689208984e-01 }
            -
               depth: 3
               value: 1.
               norm_class_idx: 0
            -
               depth: 3
               value: 2.
               norm_class_idx: 1
      -
         nodes:
            -
               depth: 0
               value: 7.
               norm_class_idx: 5
               splits:
                  - { var:3, quality:4.5753425598144531e+01,
                      le:3.7500000000000000e+01 }
            -
               depth: 1
               value: 7.
               norm_class_idx: 5
            -
               depth: 1
               value: 4.
               norm_class_idx: 2
               splits:
                  - { var:5, quality:2.9160659790039063e+01, le:81. }
            -
               depth: 2
               value: 4.
               norm_class_idx: 2
               splits:
                  - { var:18, quality:2.9266666412353516e+01,
                      le:3.0537037849426270e+00 }
            -
               depth: 3
               value: 4.
               norm_class_idx: 2
            -
               depth: 3
               value: 6.
               norm_class_idx: 4
               splits:
                  - { var:16, quality:1.1181818008422852e+01,
                      le:9.9364066123962402e-01 }
            -
               depth: 4
               value: 6.
               norm_class_idx: 4
               splits:
                  - { var:5, quality:11., le:4.6500000000000000e+01 }
            -
               depth: 5
               value: 4.
               norm_class_idx: 2
            -
               depth: 5
               value: 6.
               norm_class_idx: 4
            -
               depth: 4
               value: 5.
               norm_class_idx: 3
            -
               depth: 2
               value: 5.
               norm_class_idx: 3
               splits:
                  - { var:2, quality:1.8269090652465820e+01,
                      le:1.5599539184570313e+02 }
            -
               depth: 3
               value: 5.
               norm_class_idx: 3
               splits:
                  - { var:12, quality:1.8587301254272461e+01,
                      le:8.7489801645278931e-01 }
            -
               depth: 4
               value: 5.
               norm_class_idx: 3
               splits:
                  - { var:18, quality:16., le:5.9261689186096191e+00 }
            -
               depth: 5
               value: 5.
               norm_class_idx: 3
            -
               depth: 5
               value: 1.
               norm_class_idx: 0
            -
               depth: 4
               value: 1.
               norm_class_idx: 0
            -
               depth: 3
               value: 2.
               norm_class_idx: 1
               splits:
                  - { var:5, quality:9.2500000000000000e+00,
                      le:1.7750000000000000e+02 }
            -
               depth: 4
               value: 2.
               norm_class_idx: 1
            -
               depth: 4
               value: 1.
               norm_class_idx: 0
      -
         nodes:
            -
               depth: 0
               value: 5.
               norm_class_idx: 3
               splits:
                  - { var:20, quality:3.4912036895751953e+01,
                      le:1.8202545166015625e+02 }
            -
               depth: 1
               value: 4.
               norm_class_idx: 2
               splits:
                  - { var:18, quality:3.1250000000000000e+01,
                      le:3.9798698425292969e+00 }
            -
               depth: 2
               value: 4.
               norm_class_idx: 2
               splits:
                  - { var:8, quality:2.0761905670166016e+01,
                      le:9.1015291213989258e-01 }
            -
               depth: 3
               value: 1.
               norm_class_idx: 0
            -
               depth: 3
               value: 4.
               norm_class_idx: 2
               splits:
                  - { var:18, quality:20., le:3.0537037849426270e+00 }
            -
               depth: 4
               value: 4.
               norm_class_idx: 2
            -
               depth: 4
               value: 4.
               norm_class_idx: 2
            -
               depth: 2
               value: 7.
               norm_class_idx: 5
               splits:
                  - { var:0, quality:1.9705263137817383e+01,
                      le:6.2876987457275391e+01 }
            -
               depth: 3
               value: 7.
               norm_class_idx: 5
               splits:
                  - { var:0, quality:1.7333333969116211e+01,
                      le:4.7937927246093750e+01 }
            -
               depth: 4
               value: 7.
               norm_class_idx: 5
            -
               depth: 4
               value: 7.
               norm_class_idx: 5
            -
               depth: 3
               value: 5.
               norm_class_idx: 3
            -
               depth: 1
               value: 5.
               norm_class_idx: 3
               splits:
                  - { var:5, quality:3.1883333206176758e+01, le:150. }
            -
               depth: 2
               value: 5.
               norm_class_idx: 3
               splits:
                  - { var:12, quality:2.5680000305175781e+01,
                      le:8.7095600366592407e-01 }
            -
               depth: 3
               value: 5.
               norm_class_idx: 3
               splits:
                  - { var:12, quality:2.3333333969116211e+01,
                      le:8.5229241847991943e-01 }
            -
               depth: 4
               value: 5.
               norm_class_idx: 3
            -
               depth: 4
               value: 5.
               norm_class_idx: 3
            -
               depth: 3
               value: 2.
               norm_class_idx: 1
            -
               depth: 2
               value: 2.
               norm_class_idx: 1
               splits:
                  - { var:14, quality:1.8133333206176758e+01,
                      le:1.7715093493461609e-01 }
            -
               depth: 3
               value: 2.
               norm_class_idx: 1
            -
               depth: 3
               value: 1.
               norm_class_idx: 0
               splits:
                  - { var:1, quality:15., le:1.9250000000000000e+02 }
            -
               depth: 4
               value: 1.
               norm_class_idx: 0
            -
               depth: 4
               value: 2.
               norm_class_idx: 1
      -
         nodes:
            -
               depth: 0
               value: 5.
               norm_class_idx: 3
               splits:
                  - { var:12, quality:3.3933334350585938e+01,
                      le:8.6238849163055420e-01 }
            -
               depth: 1
               value: 5.
               norm_class_idx: 3
               splits:
                  - { var:4, quality:3.0275861740112305e+01,
                      le:8.7715354919433594e+01 }
            -
               depth: 2
               value: 4.
               norm_class_idx: 2
               splits:
                  - { var:16, quality:1.0142857551574707e+01,
                      le:2.5598588585853577e-01 }
            -
               depth: 3
               value: 4.
               norm_class_idx: 2
            -
               depth: 3
               value: 6.
               norm_class_idx: 4
            -
               depth: 2
               value: 5.
               norm_class_idx: 3
               splits:
                  - { var:5, quality:2.6074073791503906e+01,
                      le:9.0500000000000000e+01 }
            -
               depth: 3
               value: 1.
               norm_class_idx: 0
            -
               depth: 3
               value: 5.
               norm_class_idx: 3
               splits:
                  - { var:1, quality:2.5222221374511719e+01,
                      le:1.3250000000000000e+02 }
            -
               depth: 4
               value: 5.
               norm_class_idx: 3
            -
               depth: 4
               value: 5.
               norm_class_idx: 3
            -
               depth: 1
               value: 1.
               norm_class_idx: 0
               splits:
                  - { var:1, quality:2.9217391967773438e+01, le:32. }
            -
               depth: 2
               value: 7.
               norm_class_idx: 5
            -
               depth: 2
               value: 1.
               norm_class_idx: 0
               splits:
                  - { var:5, quality:2.6141666412353516e+01, le:95. }
            -
               depth: 3
               value: 4.
               norm_class_idx: 2
               splits:
                  - { var:16, quality:1.3142857551574707e+01,
                      le:1.5474787354469299e-01 }
            -
               depth: 4
               value: 4.
               norm_class_idx: 2
               splits:
                  - { var:16, quality:1.2500000000000000e+01,
                      le:8.8330268859863281e-02 }
            -
               depth: 5
               value: 4.
               norm_class_idx: 2
            -
               depth: 5
               value: 4.
               norm_class_idx: 2
            -
               depth: 4
               value: 1.
               norm_class_idx: 0
            -
               depth: 3
               value: 1.
               norm_class_idx: 0
               splits:
                  - { var:1, quality:2.6271493911743164e+01, le:174. }
            -
               depth: 4
               value: 1.
               norm_class_idx: 0
               splits:
                  - { var:1, quality:1.5666666984558105e+01,
                      le:1.6950000000000000e+02 }
            -
               depth: 5
               value: 1.
               norm_class_idx: 0
            -
               depth: 5
               value: 1.
               norm_class_idx: 0
            -
               depth: 4
               value: 2.
               norm_class_idx: 1
               splits:
                  - { var:4, quality:13., le:1.7518005371093750e+02 }
            -
               depth: 5
               value: 2.
               norm_class_idx: 1
            -
               depth: 5
               value: 1.
               norm_class_idx: 0
      -
         nodes:
            -
               depth: 0
               value: 2.
               norm_class_idx: 1
               splits:
                  - { var:1, quality:3.9359073638916016e+01,
                      le:1.6950000000000000e+02 }
            -
               depth: 1
               value: 4.
               norm_class_idx: 2
               splits:
                  - { var:3, quality:3.6248149871826172e+01,
                      le:3.7500000000000000e+01 }
            -
               depth: 2
               value: 7.
               norm_class_idx: 5
               splits:
                  - { var:5, quality:20., le:1.3500000000000000e+01 }
            -
               depth: 3
               value: 6.
               norm_class_idx: 4
            -
               depth: 3
               value: 7.
               norm_class_idx: 5
            -
               depth: 2
               value: 4.
               norm_class_idx: 2
               splits:
                  - { var:5, quality:3.0008657455444336e+01,
                      le:8.0500000000000000e+01 }
            -
               depth: 3
               value: 4.
               norm_class_idx: 2
               splits:
                  - { var:5, quality:1.7571428298950195e+01,
                      le:5.0500000000000000e+01 }
            -
               depth: 4
               value: 4.
               norm_class_idx: 2
            -
               depth: 4
               value: 4.
               norm_class_idx: 2
            -
               depth: 3
               value: 5.
               norm_class_idx: 3
               splits:
                  - { var:1, quality:1.9357143402099609e+01,
                      le:8.7500000000000000e+01 }
            -
               depth: 4
               value: 1.
               norm_class_idx: 0
            -
               depth: 4
               value: 5.
               norm_class_idx: 3
               splits:
                  - { var:20, quality:2.2350000381469727e+01,
                      le:2.0654360961914063e+02 }
            -
               depth: 5
               value: 4.
               norm_class_idx: 2
            -
               depth: 5
               value: 5.
               norm_class_idx: 3
            -
               depth: 1
               value: 2.
               norm_class_idx: 1
               splits:
                  - { var:4, quality:2.4307691574096680e+01,
                      le:1.6877925109863281e+02 }
            -
               depth: 2
               value: 2.
               norm_class_idx: 1
               splits:
                  - { var:16, quality:26., le:-4.9340867996215820e-01 }
            -
               depth: 3
               value: 1.
               norm_class_idx: 0
            -
               depth: 3
               value: 2.
               norm_class_idx: 1
            -
               depth: 2
               value: 1.
               norm_class_idx: 0
      -
         nodes:
            -
               depth: 0
               value: 7.
               norm_class_idx: 5
               splits:
                  - { var:1, quality:3.9456623077392578e+01,
                      le:3.1500000000000000e+01 }
            -
               depth: 1
               value: 7.
               norm_class_idx: 5
               splits:
                  - { var:14, quality:25., le:1.7226126790046692e-01 }
            -
               depth: 2
               value: 6.
               norm_class_idx: 4
            -
               depth: 2
               value: 7.
               norm_class_idx: 5
            -
               depth: 1
               value: 5.
               norm_class_idx: 3
               splits:
                  - { var:4, quality:3.1761701583862305e+01,
                      le:8.6985046386718750e+01 }
            -
               depth: 2
               value: 4.
               norm_class_idx: 2
               splits:
                  - { var:20, quality:2.0126983642578125e+01,
                      le:9.8384857177734375e+01 }
            -
               depth: 3
               value: 4.
               norm_class_idx: 2
               splits:
                  - { var:1, quality:1.6250000000000000e+01, le:52. }
            -
               depth: 4
               value: 4.
               norm_class_idx: 2
            -
               depth: 4
               value: 4.
               norm_class_idx: 2
            -
               depth: 3
               value: 6.
               norm_class_idx: 4
            -
               depth: 2
               value: 5.
               norm_class_idx: 3
               splits:
                  - { var:6, quality:3.0883636474609375e+01,
                      le:5.2272582054138184e-01 }
            -
               depth: 3
               value: 5.
               norm_class_idx: 3
               splits:
                  - { var:13, quality:2.0666666030883789e+01,
                      le:9.0999996662139893e-01 }
            -
               depth: 4
               value: 5.
               norm_class_idx: 3
            -
               depth: 4
               value: 1.
               norm_class_idx: 0
            -
               depth: 3
               value: 1.
               norm_class_idx: 0
               splits:
                  - { var:14, quality:1.6347221374511719e+01,
                      le:1.9669817388057709e-01 }
            -
               depth: 4
               value: 2.
               norm_class_idx: 1
               splits:
                  - { var:1, quality:1.4166666984558105e+01, le:145. }
            -
               depth: 5
               value: 1.
               norm_class_idx: 0
            -
               depth: 5
               value: 2.
               norm_class_idx: 1
            -
               depth: 4
               value: 1.
               norm_class_idx: 0
      -
         nodes:
            -
               depth: 0
               value: 5.
               norm_class_idx: 3
               splits:
                  - { var:4, quality:3.4995384216308594e+01,
                      le:8.9555877685546875e+01 }
            -
               depth: 1
               value: 4.
               norm_class_idx: 2
               splits:
                  - { var:2, quality:3.2689075469970703e+01,
                      le:4.5792770385742188e+01 }
            -
               depth: 2
               value: 7.
               norm_class_idx: 5
               splits:
                  - { var:0, quality:1.5399999618530273e+01,
                      le:3.5109268188476563e+01 }
            -
               depth: 3
               value: 7.
               norm_class_idx: 5
            -
               depth: 3
               value: 7.
               norm_class_idx: 5
            -
               depth: 2
               value: 4.
               norm_class_idx: 2
               splits:
                  - { var:16, quality:2.9520000457763672e+01,
                      le:3.1230467557907104e-01 }
            -
               depth: 3
               value: 4.
               norm_class_idx: 2
               splits:
                  - { var:8, quality:25., le:8.3674716949462891e-01 }
            -
               depth: 4
               value: 1.
               norm_class_idx: 0
            -
               depth: 4
               value: 4.
               norm_class_idx: 2
            -
               depth: 3
               value: 6.
               norm_class_idx: 4
            -
               depth: 1
               value: 5.
               norm_class_idx: 3
               splits:
                  - { var:8, quality:34., le:1.4915369749069214e+00 }
            -
               depth: 2
               value: 2.
               norm_class_idx: 1
               splits:
                  - { var:12, quality:1.8551282882690430e+01,
                      le:9.1637527942657471e-01 }
            -
               depth: 3
               value: 1.
               norm_class_idx: 0
               splits:
                  - { var:18, quality:9.6666669845581055e+00,
                      le:1.6320983171463013e+00 }
            -
               depth: 4
               value: 2.
               norm_class_idx: 1
            -
               depth: 4
               value: 1.
               norm_class_idx: 0
               splits:
                  - { var:20, quality:10., le:4.1861657714843750e+02 }
            -
               depth: 5
               value: 1.
               norm_class_idx: 0
            -
               depth: 5
               value: 1.
               norm_class_idx: 0
            -
               depth: 3
               value: 2.
               norm_class_idx: 1
               splits:
                  - { var:1, quality:12., le:1.2650000000000000e+02 }
            -
               depth: 4
               value: 1.
               norm_class_idx: 0
            -
               depth: 4
               value: 2.
               norm_class_idx: 1
            -
               depth: 2
               value: 5.
               norm_class_idx: 3
               splits:
                  - { var:12, quality:2.3083333969116211e+01,
                      le:8.6627554893493652e-01 }
            -
               depth: 3
               value: 5.
               norm_class_idx: 3
               splits:
                  - { var:10, quality:24., le:6.3820648193359375e-01 }
            -
               depth: 4
               value: 1.
               norm_class_idx: 0
            -
               depth: 4
               value: 5.
               norm_class_idx: 3
            -
               depth: 3
               value: 1.
               norm_class_idx: 0
      -
         nodes:
            -
               depth: 0
               value: 4.
               norm_class_idx: 2
               splits:
                  - { var:18, quality:3.0400527954101563e+01,
                      le:4.5262093544006348e+00 }
            -
               depth: 1
               value: 4.
               norm_class_idx: 2
               splits:
                  - { var:2, quality:3.2174789428710938e+01,
                      le:1.1934870910644531e+02 }
            -
               depth: 2
               value: 4.
               norm_class_idx: 2
               splits:
                  - { var:4, quality:2.6399999618530273e+01,
                      le:9.5328277587890625e+01 }
            -
               depth: 3
               value: 4.
               norm_class_idx: 2
               splits:
                  - { var:16, quality:2.8399999618530273e+01,
                      le:2.4464260041713715e-01 }
            -
               depth: 4
               value: 4.
               norm_class_idx: 2
            -
               depth: 4
               value: 6.
               norm_class_idx: 4
            -
               depth: 3
               value: 1.
               norm_class_idx: 0
            -
               depth: 2
               value: 5.
               norm_class_idx: 3
               splits:
                  - { var:8, quality:2.5902778625488281e+01,
                      le:1.2995877265930176e+00 }
            -
               depth: 3
               value: 2.
               norm_class_idx: 1
               splits:
                  - { var:3, quality:18., le:1.8750000000000000e+02 }
            -
               depth: 4
               value: 2.
               norm_class_idx: 1
            -
               depth: 4
               value: 1.
               norm_class_idx: 0
            -
               depth: 3
               value: 5.
               norm_class_idx: 3
               splits:
                  - { var:3, quality:16., le:162. }
            -
               depth: 4
               value: 5.
               norm_class_idx: 3
            -
               depth: 4
               value: 1.
               norm_class_idx: 0
            -
               depth: 1
               value: 7.
               norm_class_idx: 5
               splits:
                  - { var:0, quality:2.2428571701049805e+01,
                      le:4.6992549896240234e+01 }
            -
               depth: 2
               value: 7.
               norm_class_idx: 5
            -
               depth: 2
               value: 6.
               norm_class_idx: 4
               splits:
                  - { var:5, quality:6.4888887405395508e+00, le:128. }
            -
               depth: 3
               value: 6.
               norm_class_idx: 4
            -
               depth: 3
               value: 1.
               norm_class_idx: 0
      -
         nodes:
            -
               depth: 0
               value: 1.
               norm_class_idx: 0
               splits:
                  - { var:5, quality:3.2746154785156250e+01,
                      le:8.9500000000000000e+01 }
            -
               depth: 1
               value: 7.
               norm_class_idx: 5
               splits:
                  - { var:3, quality:2.8033332824707031e+01,
                      le:3.7500000000000000e+01 }
            -
               depth: 2
               value: 7.
               norm_class_idx: 5
               splits:
                  - { var:1, quality:20., le:1.3500000000000000e+01 }
            -
               depth: 3
               value: 6.
               norm_class_idx: 4
            -
               depth: 3
               value: 7.
               norm_class_idx: 5
            -
               depth: 2
               value: 4.
               norm_class_idx: 2
               splits:
                  - { var:18, quality:2.5076923370361328e+01,
                      le:3.0537037849426270e+00 }
            -
               depth: 3
               value: 4.
               norm_class_idx: 2
            -
               depth: 3
               value: 6.
               norm_class_idx: 4
               splits:
                  - { var:20, quality:9.2222223281860352e+00,
                      le:1.3741763305664063e+02 }
            -
               depth: 4
               value: 6.
               norm_class_idx: 4
            -
               depth: 4
               value: 6.
               norm_class_idx: 4
            -
               depth: 1
               value: 1.
               norm_class_idx: 0
               splits:
                  - { var:15, quality:2.9300752639770508e+01,
                      le:1.0000000149011612e-01 }
            -
               depth: 2
               value: 1.
               norm_class_idx: 0
               splits:
                  - { var:3, quality:2.2922559738159180e+01, le:135. }
            -
               depth: 3
               value: 1.
               norm_class_idx: 0
               splits:
                  - { var:16, quality:11., le:1.2035635299980640e-03 }
            -
               depth: 4
               value: 4.
               norm_class_idx: 2
            -
               depth: 4
               value: 1.
               norm_class_idx: 0
            -
               depth: 3
               value: 2.
               norm_class_idx: 1
               splits:
                  - { var:2, quality:2.1852272033691406e+01,
                      le:1.7848342895507813e+02 }
            -
               depth: 4
               value: 2.
               norm_class_idx: 1
               splits:
                  - { var:1, quality:16., le:163. }
            -
               depth: 5
               value: 5.
               norm_class_idx: 3
            -
               depth: 5
               value: 2.
               norm_class_idx: 1
            -
               depth: 4
               value: 1.
               norm_class_idx: 0
               splits:
                  - { var:16, quality:8.6000003814697266e+00,
                      le:-4.8955726623535156e-01 }
            -
               depth: 5
               value: 1.
               norm_class_idx: 0
            -
               depth: 5
               value: 1.
               norm_class_idx: 0
            -
               depth: 2
               value: 5.
               norm_class_idx: 3
               splits:
                  - { var:8, quality:14., le:1.5393840074539185e+00 }
            -
               depth: 3
               value: 4.
               norm_class_idx: 2
            -
               depth: 3
               value: 5.
               norm_class_idx: 3
      -
         nodes:
            -
               depth: 0
               value: 5.
               norm_class_idx: 3
               splits:
                  - { var:5, quality:3.4148387908935547e+01,
                      le:8.0500000000000000e+01 }
            -
               depth: 1
               value: 4.
               norm_class_idx: 2
               splits:
                  - { var:18, quality:2.8771930694580078e+01,
                      le:3.1453614234924316e+00 }
            -
               depth: 2
               value: 4.
               norm_class_idx: 2
               splits:
                  - { var:10, quality:19., le:7.1722149848937988e-01 }
            -
               depth: 3
               value: 6.
               norm_class_idx: 4
            -
               depth: 3
               value: 4.
               norm_class_idx: 2
            -
               depth: 2
               value: 7.
               norm_class_idx: 5
               splits:
                  - { var:3, quality:1.9250000000000000e+01,
                      le:4.3500000000000000e+01 }
            -
               depth: 3
               value: 7.
               norm_class_idx: 5
            -
               depth: 3
               value: 6.
               norm_class_idx: 4
            -
               depth: 1
               value: 5.
               norm_class_idx: 3
               splits:
                  - { var:6, quality:3.3983192443847656e+01,
                      le:5.0852078199386597e-01 }
            -
               depth: 2
               value: 5.
               norm_class_idx: 3
               splits:
                  - { var:15, quality:2.1660818099975586e+01,
                      le:1.8000000715255737e-01 }
            -
               depth: 3
               value: 1.
               norm_class_idx: 0
            -
               depth: 3
               value: 5.
               norm_class_idx: 3
               splits:
                  - { var:14, quality:19., le:2.9638287425041199e-01 }
            -
               depth: 4
               value: 1.
               norm_class_idx: 0
            -
               depth: 4
               value: 5.
               norm_class_idx: 3
            -
               depth: 2
               value: 2.
               norm_class_idx: 1
               splits:
                  - { var:18, quality:2.0239999771118164e+01,
                      le:1.1303651332855225e+00 }
            -
               depth: 3
               value: 2.
               norm_class_idx: 1
            -
               depth: 3
               value: 1.
               norm_class_idx: 0
               splits:
                  - { var:15, quality:1.4043478012084961e+01,
                      le:1.1999999731779099e-01 }
            -
               depth: 4
               value: 1.
               norm_class_idx: 0
               splits:
                  - { var:8, quality:1.4285714149475098e+01,
                      le:1.0248785018920898e+00 }
            -
               depth: 5
               value: 1.
               norm_class_idx: 0
            -
               depth: 5
               value: 2.
               norm_class_idx: 1
            -
               depth: 4
               value: 4.
               norm_class_idx: 2
      -
         nodes:
            -
               depth: 0
               value: 5.
               norm_class_idx: 3
               splits:
